<?xml version="1.0"?>
<opencv_storage>
<cascade>
  <stageType>BOOST</stageType>
  <featureType>HAAR</featureType>
  <height>24</height>
  <width>24</width>
  <stageParams>
    <boostType>GAB</boostType>
    <minHitRate>9.9500000476837158e-01</minHitRate>
    <maxFalseAlarm>5.0000000000000000e-01</maxFalseAlarm>
    <weightTrimRate>9.4999998807907104e-01</weightTrimRate>
    <maxDepth>1</maxDepth>
    <maxWeakCount>100</maxWeakCount></stageParams>
  <featureParams>
    <maxCatCount>0</maxCatCount>
    <featSize>1</featSize>
    <mode>BASIC</mode></featureParams>
  <stageNum>5</stageNum>
  <stages>
    <!-- stage 0 -->
    <_>
      <maxWeakCount>2</maxWeakCount>
      <stageThreshold>0.</stageThreshold>
      <weakClassifiers>
        <_>
          <internalNodes>
            0 -1 2 -3.7945303320884705e-01</internalNodes>
          <leafValues>
            1. -9.9600797891616821e-01</leafValues></_>
        <_>
          <internalNodes>
            0 -1 0 1.4432637393474579e-01</internalNodes>
          <leafValues>
            -1. 1.</leafValues></_></weakClassifiers></_>
    <!-- stage 1 -->
    <_>
      <maxWeakCount>2</maxWeakCount>
      <stageThreshold>-3.9116880297660828e-01</stageThreshold>
      <weakClassifiers>
        <_>
          <internalNodes>
            0 -1 8 -2.4089470505714417e-01</internalNodes>
          <leafValues>
            6.3636362552642822e-01 -9.7418075799942017e-01</leafValues></_>
        <_>
          <internalNodes>
            0 -1 4 5.5960893630981445e-02</internalNodes>
          <leafValues>
            -1. 5.8301192522048950e-01</leafValues></_></weakClassifiers></_>
    <!-- stage 2 -->
    <_>
      <maxWeakCount>3</maxWeakCount>
      <stageThreshold>-1.4633007049560547e+00</stageThreshold>
      <weakClassifiers>
        <_>
          <internalNodes>
            0 -1 3 -6.6748249530792236e-01</internalNodes>
          <leafValues>
            9.1666668653488159e-01 -9.6653544902801514e-01</leafValues></_>
        <_>
          <internalNodes>
            0 -1 7 -2.1126076579093933e-02</internalNodes>
          <leafValues>
            5.4245436191558838e-01 -9.4584709405899048e-01</leafValues></_>
        <_>
          <internalNodes>
            0 -1 9 1.5789493918418884e-01</internalNodes>
          <leafValues>
            -9.7628813982009888e-01 4.4908177852630615e-01</leafValues></_></weakClassifiers></_>
    <!-- stage 3 -->
    <_>
      <maxWeakCount>2</maxWeakCount>
      <stageThreshold>-7.9372876882553101e-01</stageThreshold>
      <weakClassifiers>
        <_>
          <internalNodes>
            0 -1 5 -5.1562261581420898e-01</internalNodes>
          <leafValues>
            5.5555558204650879e-01 -9.6248763799667358e-01</leafValues></_>
        <_>
          <internalNodes>
            0 -1 11 1.7350283087580465e-05</internalNodes>
          <leafValues>
            -9.9669438600540161e-01 1.6875889897346497e-01</leafValues></_></weakClassifiers></_>
    <!-- stage 4 -->
    <_>
      <maxWeakCount>3</maxWeakCount>
      <stageThreshold>-9.6609389781951904e-01</stageThreshold>
      <weakClassifiers>
        <_>
          <internalNodes>
            0 -1 1 -5.6977146863937378e-01</internalNodes>
          <leafValues>
            1. -9.8019802570343018e-01</leafValues></_>
        <_>
          <internalNodes>
            0 -1 6 7.8323520720005035e-03</internalNodes>
          <leafValues>
            -9.8589587211608887e-01 1.</leafValues></_>
        <_>
          <internalNodes>
            0 -1 10 -2.0575815811753273e-02</internalNodes>
          <leafValues>
            1. -8.8128334283828735e-01</leafValues></_></weakClassifiers></_></stages>
  <features>
    <_>
      <rects>
        <_>
          0 0 14 9 -1.</_>
        <_>
          0 3 14 3 3.</_></rects>
      <tilted>0</tilted></_>
    <_>
      <rects>
        <_>
          0 1 21 21 -1.</_>
        <_>
          7 1 7 21 3.</_></rects>
      <tilted>0</tilted></_>
    <_>
      <rects>
        <_>
          0 9 24 11 -1.</_>
        <_>
          8 9 8 11 3.</_></rects>
      <tilted>0</tilted></_>
    <_>
      <rects>
        <_>
          1 3 21 19 -1.</_>
        <_>
          8 3 7 19 3.</_></rects>
      <tilted>0</tilted></_>
    <_>
      <rects>
        <_>
          2 18 14 6 -1.</_>
        <_>
          2 21 14 3 2.</_></rects>
      <tilted>0</tilted></_>
    <_>
      <rects>
        <_>
          3 2 21 17 -1.</_>
        <_>
          10 2 7 17 3.</_></rects>
      <tilted>0</tilted></_>
    <_>
      <rects>
        <_>
          4 3 3 6 -1.</_>
        <_>
          4 5 3 2 3.</_></rects>
      <tilted>0</tilted></_>
    <_>
      <rects>
        <_>
          4 9 4 4 -1.</_>
        <_>
          6 9 2 4 2.</_></rects>
      <tilted>0</tilted></_>
    <_>
      <rects>
        <_>
          7 0 9 16 -1.</_>
        <_>
          7 8 9 8 2.</_></rects>
      <tilted>0</tilted></_>
    <_>
      <rects>
        <_>
          8 0 14 20 -1.</_>
        <_>
          8 0 7 10 2.</_>
        <_>
          15 10 7 10 2.</_></rects>
      <tilted>0</tilted></_>
    <_>
      <rects>
        <_>
          8 20 12 4 -1.</_>
        <_>
          8 20 6 2 2.</_>
        <_>
          14 22 6 2 2.</_></rects>
      <tilted>0</tilted></_>
    <_>
      <rects>
        <_>
          12 12 1 2 -1.</_>
        <_>
          12 13 1 1 2.</_></rects>
      <tilted>0</tilted></_></features></cascade>
</opencv_storage>
