<?xml version="1.0"?>
<opencv_storage>
<cascade>
  <stageType>BOOST</stageType>
  <featureType>HAAR</featureType>
  <height>24</height>
  <width>24</width>
  <stageParams>
    <boostType>GAB</boostType>
    <minHitRate>9.9500000476837158e-01</minHitRate>
    <maxFalseAlarm>5.0000000000000000e-01</maxFalseAlarm>
    <weightTrimRate>9.4999998807907104e-01</weightTrimRate>
    <maxDepth>1</maxDepth>
    <maxWeakCount>100</maxWeakCount></stageParams>
  <featureParams>
    <maxCatCount>0</maxCatCount>
    <featSize>1</featSize>
    <mode>BASIC</mode></featureParams>
  <stageNum>5</stageNum>
  <stages>
    <!-- stage 0 -->
    <_>
      <maxWeakCount>3</maxWeakCount>
      <stageThreshold>-1.2136917114257813e+00</stageThreshold>
      <weakClassifiers>
        <_>
          <internalNodes>
            0 -1 3 -2.4288707971572876e-01</internalNodes>
          <leafValues>
            9.3333333730697632e-01 -9.9599999189376831e-01</leafValues></_>
        <_>
          <internalNodes>
            0 -1 4 -2.4236115813255310e-01</internalNodes>
          <leafValues>
            1. -9.6735298633575439e-01</leafValues></_>
        <_>
          <internalNodes>
            0 -1 2 -9.9422782659530640e-02</internalNodes>
          <leafValues>
            7.4966126680374146e-01 -1.</leafValues></_></weakClassifiers></_>
    <!-- stage 1 -->
    <_>
      <maxWeakCount>2</maxWeakCount>
      <stageThreshold>-4.5694977045059204e-01</stageThreshold>
      <weakClassifiers>
        <_>
          <internalNodes>
            0 -1 6 -1.2888965010643005e-01</internalNodes>
          <leafValues>
            7.8181821107864380e-01 -9.7810947895050049e-01</leafValues></_>
        <_>
          <internalNodes>
            0 -1 9 -6.9874167442321777e-02</internalNodes>
          <leafValues>
            5.2115970849990845e-01 -9.7809642553329468e-01</leafValues></_></weakClassifiers></_>
    <!-- stage 2 -->
    <_>
      <maxWeakCount>3</maxWeakCount>
      <stageThreshold>-1.3766300678253174e+00</stageThreshold>
      <weakClassifiers>
        <_>
          <internalNodes>
            0 -1 11 3.5087668895721436e-01</internalNodes>
          <leafValues>
            -9.6453201770782471e-01 8.6666667461395264e-01</leafValues></_>
        <_>
          <internalNodes>
            0 -1 7 5.9078142046928406e-02</internalNodes>
          <leafValues>
            -9.4059294462203979e-01 4.5287966728210449e-01</leafValues></_>
        <_>
          <internalNodes>
            0 -1 10 3.3990192605415359e-05</internalNodes>
          <leafValues>
            -9.6294391155242920e-01 5.2849483489990234e-01</leafValues></_></weakClassifiers></_>
    <!-- stage 3 -->
    <_>
      <maxWeakCount>3</maxWeakCount>
      <stageThreshold>-1.2970008850097656e+00</stageThreshold>
      <weakClassifiers>
        <_>
          <internalNodes>
            0 -1 1 -6.8909412622451782e-01</internalNodes>
          <leafValues>
            5.0877195596694946e-01 -9.6610170602798462e-01</leafValues></_>
        <_>
          <internalNodes>
            0 -1 5 6.2406718730926514e-02</internalNodes>
          <leafValues>
            -9.4139403104782104e-01 5.3493052721023560e-01</leafValues></_>
        <_>
          <internalNodes>
            0 -1 13 2.9862549155950546e-02</internalNodes>
          <leafValues>
            -8.6437880992889404e-01 7.7034324407577515e-01</leafValues></_></weakClassifiers></_>
    <!-- stage 4 -->
    <_>
      <maxWeakCount>3</maxWeakCount>
      <stageThreshold>-1.1321831941604614e+00</stageThreshold>
      <weakClassifiers>
        <_>
          <internalNodes>
            0 -1 0 -2.3236578702926636e-01</internalNodes>
          <leafValues>
            1. -9.5312500000000000e-01</leafValues></_>
        <_>
          <internalNodes>
            0 -1 8 -8.2862544804811478e-03</internalNodes>
          <leafValues>
            7.8188526630401611e-01 -9.0882796049118042e-01</leafValues></_>
        <_>
          <internalNodes>
            0 -1 12 1.3371356544666924e-05</internalNodes>
          <leafValues>
            -9.1063976287841797e-01 7.2976982593536377e-01</leafValues></_></weakClassifiers></_></stages>
  <features>
    <_>
      <rects>
        <_>
          0 1 16 16 -1.</_>
        <_>
          0 9 16 8 2.</_></rects>
      <tilted>0</tilted></_>
    <_>
      <rects>
        <_>
          0 7 24 15 -1.</_>
        <_>
          8 7 8 15 3.</_></rects>
      <tilted>0</tilted></_>
    <_>
      <rects>
        <_>
          0 13 21 4 -1.</_>
        <_>
          7 13 7 4 3.</_></rects>
      <tilted>0</tilted></_>
    <_>
      <rects>
        <_>
          1 9 21 9 -1.</_>
        <_>
          8 9 7 9 3.</_></rects>
      <tilted>0</tilted></_>
    <_>
      <rects>
        <_>
          1 10 21 8 -1.</_>
        <_>
          8 10 7 8 3.</_></rects>
      <tilted>0</tilted></_>
    <_>
      <rects>
        <_>
          3 18 16 6 -1.</_>
        <_>
          3 21 16 3 2.</_></rects>
      <tilted>0</tilted></_>
    <_>
      <rects>
        <_>
          5 2 13 10 -1.</_>
        <_>
          5 7 13 5 2.</_></rects>
      <tilted>0</tilted></_>
    <_>
      <rects>
        <_>
          6 18 13 6 -1.</_>
        <_>
          6 21 13 3 2.</_></rects>
      <tilted>0</tilted></_>
    <_>
      <rects>
        <_>
          7 4 1 6 -1.</_>
        <_>
          7 7 1 3 2.</_></rects>
      <tilted>0</tilted></_>
    <_>
      <rects>
        <_>
          7 5 11 8 -1.</_>
        <_>
          7 9 11 4 2.</_></rects>
      <tilted>0</tilted></_>
    <_>
      <rects>
        <_>
          9 10 1 2 -1.</_>
        <_>
          9 11 1 1 2.</_></rects>
      <tilted>0</tilted></_>
    <_>
      <rects>
        <_>
          10 4 14 17 -1.</_>
        <_>
          17 4 7 17 2.</_></rects>
      <tilted>0</tilted></_>
    <_>
      <rects>
        <_>
          13 10 1 2 -1.</_>
        <_>
          13 11 1 1 2.</_></rects>
      <tilted>0</tilted></_>
    <_>
      <rects>
        <_>
          16 3 4 13 -1.</_>
        <_>
          18 3 2 13 2.</_></rects>
      <tilted>0</tilted></_></features></cascade>
</opencv_storage>
